{
  "config": {
    "ckpt": "tcn_gap_best.pt",
    "main_py": "main.py",
    "calib_csv": "datasets/noise-d650-s20-i1.ila_processed.csv",
    "w_bits": 12,
    "a_bits": 14,
    "per_out_channel_weight": true,
    "window_len": 256,
    "stride": 4,
    "max_windows": 4096,
    "eval_batches": 1024,
    "x_cols": [
      "Current",
      "dCurrent",
      "B",
      "dB",
      "Voltage",
      "CurrentSmallSig",
      "dCurrentSmallSig"
    ],
    "y_cols": [
      "AirGap"
    ]
  },
  "activation_calib_meta": {
    "head_out": {
      "max_abs_float": 0.928932249546051,
      "suggest_scale_pow2": 0.0001220703125,
      "suggest_exp2": -13,
      "a_bits": 14
    },
    "input": {
      "max_abs_float": 1.0,
      "suggest_scale_pow2": 0.000244140625,
      "suggest_exp2": -12,
      "a_bits": 14
    },
    "tcn.0.act1_out": {
      "max_abs_float": 4.521524906158447,
      "suggest_scale_pow2": 0.0009765625,
      "suggest_exp2": -10,
      "a_bits": 14
    },
    "tcn.0.act2_out": {
      "max_abs_float": 3.8279993534088135,
      "suggest_scale_pow2": 0.00048828125,
      "suggest_exp2": -11,
      "a_bits": 14
    },
    "tcn.0.add_out": {
      "max_abs_float": 4.379116535186768,
      "suggest_scale_pow2": 0.0009765625,
      "suggest_exp2": -10,
      "a_bits": 14
    },
    "tcn.0.final_out": {
      "max_abs_float": 4.379116535186768,
      "suggest_scale_pow2": 0.0009765625,
      "suggest_exp2": -10,
      "a_bits": 14
    },
    "tcn.0.res_out": {
      "max_abs_float": 2.3251757621765137,
      "suggest_scale_pow2": 0.00048828125,
      "suggest_exp2": -11,
      "a_bits": 14
    },
    "tcn.1.act1_out": {
      "max_abs_float": 6.729001998901367,
      "suggest_scale_pow2": 0.0009765625,
      "suggest_exp2": -10,
      "a_bits": 14
    },
    "tcn.1.act2_out": {
      "max_abs_float": 4.473843097686768,
      "suggest_scale_pow2": 0.0009765625,
      "suggest_exp2": -10,
      "a_bits": 14
    },
    "tcn.1.add_out": {
      "max_abs_float": 4.860051155090332,
      "suggest_scale_pow2": 0.0009765625,
      "suggest_exp2": -10,
      "a_bits": 14
    },
    "tcn.1.final_out": {
      "max_abs_float": 4.860051155090332,
      "suggest_scale_pow2": 0.0009765625,
      "suggest_exp2": -10,
      "a_bits": 14
    },
    "tcn.1.res_out": {
      "max_abs_float": 4.379116535186768,
      "suggest_scale_pow2": 0.0009765625,
      "suggest_exp2": -10,
      "a_bits": 14
    },
    "tcn.2.act1_out": {
      "max_abs_float": 10.027705192565918,
      "suggest_scale_pow2": 0.001953125,
      "suggest_exp2": -9,
      "a_bits": 14
    },
    "tcn.2.act2_out": {
      "max_abs_float": 8.394926071166992,
      "suggest_scale_pow2": 0.001953125,
      "suggest_exp2": -9,
      "a_bits": 14
    },
    "tcn.2.add_out": {
      "max_abs_float": 8.394926071166992,
      "suggest_scale_pow2": 0.001953125,
      "suggest_exp2": -9,
      "a_bits": 14
    },
    "tcn.2.final_out": {
      "max_abs_float": 8.394926071166992,
      "suggest_scale_pow2": 0.001953125,
      "suggest_exp2": -9,
      "a_bits": 14
    },
    "tcn.2.res_out": {
      "max_abs_float": 4.860051155090332,
      "suggest_scale_pow2": 0.0009765625,
      "suggest_exp2": -10,
      "a_bits": 14
    },
    "tcn.3.act1_out": {
      "max_abs_float": 10.812606811523438,
      "suggest_scale_pow2": 0.001953125,
      "suggest_exp2": -9,
      "a_bits": 14
    },
    "tcn.3.act2_out": {
      "max_abs_float": 7.345691204071045,
      "suggest_scale_pow2": 0.0009765625,
      "suggest_exp2": -10,
      "a_bits": 14
    },
    "tcn.3.add_out": {
      "max_abs_float": 8.394926071166992,
      "suggest_scale_pow2": 0.001953125,
      "suggest_exp2": -9,
      "a_bits": 14
    },
    "tcn.3.final_out": {
      "max_abs_float": 8.394926071166992,
      "suggest_scale_pow2": 0.001953125,
      "suggest_exp2": -9,
      "a_bits": 14
    },
    "tcn.3.res_out": {
      "max_abs_float": 8.394926071166992,
      "suggest_scale_pow2": 0.001953125,
      "suggest_exp2": -9,
      "a_bits": 14
    },
    "tcn.4.act1_out": {
      "max_abs_float": 8.631627082824707,
      "suggest_scale_pow2": 0.001953125,
      "suggest_exp2": -9,
      "a_bits": 14
    },
    "tcn.4.act2_out": {
      "max_abs_float": 11.233630180358887,
      "suggest_scale_pow2": 0.001953125,
      "suggest_exp2": -9,
      "a_bits": 14
    },
    "tcn.4.add_out": {
      "max_abs_float": 11.42822265625,
      "suggest_scale_pow2": 0.001953125,
      "suggest_exp2": -9,
      "a_bits": 14
    },
    "tcn.4.final_out": {
      "max_abs_float": 11.42822265625,
      "suggest_scale_pow2": 0.001953125,
      "suggest_exp2": -9,
      "a_bits": 14
    },
    "tcn.4.res_out": {
      "max_abs_float": 8.394926071166992,
      "suggest_scale_pow2": 0.001953125,
      "suggest_exp2": -9,
      "a_bits": 14
    }
  },
  "weight_and_bias_quant_meta": {
    "tcn.0.conv1.weight": {
      "type": "weight",
      "bits": 12,
      "per_out_channel": true,
      "scale_pow2": [
        0.0009765625,
        0.00048828125,
        0.001953125,
        0.0009765625,
        0.0009765625,
        0.0009765625,
        0.001953125,
        0.0009765625,
        0.0009765625,
        0.0009765625,
        0.0009765625,
        0.00048828125,
        0.0009765625,
        0.001953125,
        0.0009765625,
        0.0009765625,
        0.001953125,
        0.00048828125,
        0.001953125,
        0.0009765625,
        0.00048828125,
        0.00390625,
        0.0009765625,
        0.001953125,
        0.000244140625,
        0.0009765625,
        0.0009765625,
        0.0009765625,
        0.001953125,
        0.00048828125,
        0.000244140625,
        0.0009765625
      ],
      "exp2": [
        -10,
        -11,
        -9,
        -10,
        -10,
        -10,
        -9,
        -10,
        -10,
        -10,
        -10,
        -11,
        -10,
        -9,
        -10,
        -10,
        -9,
        -11,
        -9,
        -10,
        -11,
        -8,
        -10,
        -9,
        -12,
        -10,
        -10,
        -10,
        -9,
        -11,
        -12,
        -10
      ],
      "shape": [
        32,
        7,
        5
      ]
    },
    "tcn.0.conv2.weight": {
      "type": "weight",
      "bits": 12,
      "per_out_channel": true,
      "scale_pow2": [
        0.0009765625,
        0.001953125,
        0.000244140625,
        0.001953125,
        0.0009765625,
        0.0009765625,
        0.0001220703125,
        0.0009765625,
        0.000244140625,
        0.001953125,
        0.0001220703125,
        0.00390625,
        0.00390625,
        0.0009765625,
        0.001953125,
        0.0001220703125,
        0.0001220703125,
        0.00048828125,
        0.000244140625,
        0.00390625,
        6.103515625e-05,
        0.0001220703125,
        0.0001220703125,
        0.00390625,
        0.00390625,
        6.103515625e-05,
        0.0001220703125,
        0.001953125,
        6.103515625e-05,
        0.001953125,
        0.0001220703125,
        6.103515625e-05
      ],
      "exp2": [
        -10,
        -9,
        -12,
        -9,
        -10,
        -10,
        -13,
        -10,
        -12,
        -9,
        -13,
        -8,
        -8,
        -10,
        -9,
        -13,
        -13,
        -11,
        -12,
        -8,
        -14,
        -13,
        -13,
        -8,
        -8,
        -14,
        -13,
        -9,
        -14,
        -9,
        -13,
        -14
      ],
      "shape": [
        32,
        32,
        5
      ]
    },
    "tcn.0.downsample.weight": {
      "type": "weight",
      "bits": 12,
      "per_out_channel": true,
      "scale_pow2": [
        0.00048828125,
        0.00048828125,
        0.00048828125,
        0.00048828125,
        0.0009765625,
        0.0009765625,
        0.0009765625,
        0.00048828125,
        0.000244140625,
        0.00048828125,
        0.00048828125,
        0.00048828125,
        0.00048828125,
        0.00048828125,
        0.000244140625,
        0.00048828125,
        0.000244140625,
        0.00048828125,
        0.0001220703125,
        0.00048828125,
        0.000244140625,
        0.00048828125,
        0.0009765625,
        0.000244140625,
        0.00048828125,
        0.000244140625,
        0.00048828125,
        0.00048828125,
        0.0009765625,
        0.0009765625,
        0.0009765625,
        0.0001220703125
      ],
      "exp2": [
        -11,
        -11,
        -11,
        -11,
        -10,
        -10,
        -10,
        -11,
        -12,
        -11,
        -11,
        -11,
        -11,
        -11,
        -12,
        -11,
        -12,
        -11,
        -13,
        -11,
        -12,
        -11,
        -10,
        -12,
        -11,
        -12,
        -11,
        -11,
        -10,
        -10,
        -10,
        -13
      ],
      "shape": [
        32,
        7,
        1
      ]
    },
    "tcn.1.conv1.weight": {
      "type": "weight",
      "bits": 12,
      "per_out_channel": true,
      "scale_pow2": [
        0.00390625,
        0.00390625,
        0.0001220703125,
        0.000244140625,
        0.00390625,
        0.00390625,
        0.0001220703125,
        0.0001220703125,
        0.000244140625,
        0.000244140625,
        6.103515625e-05,
        0.00390625,
        6.103515625e-05,
        0.00390625,
        6.103515625e-05,
        0.000244140625,
        0.0009765625,
        0.0001220703125,
        0.001953125,
        0.000244140625,
        0.000244140625,
        0.0009765625,
        0.0001220703125,
        0.001953125,
        0.00390625,
        0.00390625,
        6.103515625e-05,
        0.0001220703125,
        0.00390625,
        0.0001220703125,
        6.103515625e-05,
        0.0001220703125
      ],
      "exp2": [
        -8,
        -8,
        -13,
        -12,
        -8,
        -8,
        -13,
        -13,
        -12,
        -12,
        -14,
        -8,
        -14,
        -8,
        -14,
        -12,
        -10,
        -13,
        -9,
        -12,
        -12,
        -10,
        -13,
        -9,
        -8,
        -8,
        -14,
        -13,
        -8,
        -13,
        -14,
        -13
      ],
      "shape": [
        32,
        32,
        5
      ]
    },
    "tcn.1.conv2.weight": {
      "type": "weight",
      "bits": 12,
      "per_out_channel": true,
      "scale_pow2": [
        0.0001220703125,
        0.0001220703125,
        0.0001220703125,
        0.0001220703125,
        0.001953125,
        0.001953125,
        0.0001220703125,
        0.001953125,
        0.001953125,
        0.0001220703125,
        0.001953125,
        0.0001220703125,
        0.0001220703125,
        0.0001220703125,
        0.001953125,
        0.0001220703125,
        0.000244140625,
        0.0001220703125,
        6.103515625e-05,
        0.00390625,
        0.001953125,
        0.001953125,
        6.103515625e-05,
        0.0001220703125,
        0.001953125,
        0.000244140625,
        0.001953125,
        0.0001220703125,
        0.001953125,
        0.0001220703125,
        0.0009765625,
        0.0009765625
      ],
      "exp2": [
        -13,
        -13,
        -13,
        -13,
        -9,
        -9,
        -13,
        -9,
        -9,
        -13,
        -9,
        -13,
        -13,
        -13,
        -9,
        -13,
        -12,
        -13,
        -14,
        -8,
        -9,
        -9,
        -14,
        -13,
        -9,
        -12,
        -9,
        -13,
        -9,
        -13,
        -10,
        -10
      ],
      "shape": [
        32,
        32,
        5
      ]
    },
    "tcn.2.conv1.weight": {
      "type": "weight",
      "bits": 12,
      "per_out_channel": true,
      "scale_pow2": [
        0.001953125,
        0.001953125,
        0.001953125,
        6.103515625e-05,
        0.001953125,
        0.0001220703125,
        0.00390625,
        6.103515625e-05,
        0.00390625,
        0.0001220703125,
        0.001953125,
        0.000244140625,
        0.001953125,
        0.00390625,
        6.103515625e-05,
        6.103515625e-05,
        6.103515625e-05,
        0.0001220703125,
        0.001953125,
        0.00390625,
        6.103515625e-05,
        0.00390625,
        0.0001220703125,
        0.00390625,
        0.001953125,
        0.0001220703125,
        0.001953125,
        6.103515625e-05,
        0.0001220703125,
        0.0009765625,
        0.0009765625,
        6.103515625e-05
      ],
      "exp2": [
        -9,
        -9,
        -9,
        -14,
        -9,
        -13,
        -8,
        -14,
        -8,
        -13,
        -9,
        -12,
        -9,
        -8,
        -14,
        -14,
        -14,
        -13,
        -9,
        -8,
        -14,
        -8,
        -13,
        -8,
        -9,
        -13,
        -9,
        -14,
        -13,
        -10,
        -10,
        -14
      ],
      "shape": [
        32,
        32,
        5
      ]
    },
    "tcn.2.conv2.weight": {
      "type": "weight",
      "bits": 12,
      "per_out_channel": true,
      "scale_pow2": [
        0.0001220703125,
        0.0001220703125,
        0.000244140625,
        0.00048828125,
        0.001953125,
        0.00390625,
        0.0009765625,
        0.0009765625,
        0.001953125,
        0.000244140625,
        0.001953125,
        0.0001220703125,
        0.0009765625,
        0.001953125,
        0.00390625,
        0.0009765625,
        0.000244140625,
        0.001953125,
        0.001953125,
        0.001953125,
        0.001953125,
        0.001953125,
        0.0001220703125,
        0.001953125,
        0.0009765625,
        6.103515625e-05,
        6.103515625e-05,
        0.0001220703125,
        0.00048828125,
        0.0001220703125,
        0.0001220703125,
        0.0009765625
      ],
      "exp2": [
        -13,
        -13,
        -12,
        -11,
        -9,
        -8,
        -10,
        -10,
        -9,
        -12,
        -9,
        -13,
        -10,
        -9,
        -8,
        -10,
        -12,
        -9,
        -9,
        -9,
        -9,
        -9,
        -13,
        -9,
        -10,
        -14,
        -14,
        -13,
        -11,
        -13,
        -13,
        -10
      ],
      "shape": [
        32,
        32,
        5
      ]
    },
    "tcn.3.conv1.weight": {
      "type": "weight",
      "bits": 12,
      "per_out_channel": true,
      "scale_pow2": [
        0.0009765625,
        6.103515625e-05,
        6.103515625e-05,
        0.0009765625,
        0.00390625,
        0.001953125,
        0.0001220703125,
        6.103515625e-05,
        0.000244140625,
        0.0001220703125,
        6.103515625e-05,
        0.0001220703125,
        0.0001220703125,
        6.103515625e-05,
        0.001953125,
        6.103515625e-05,
        0.0009765625,
        0.0001220703125,
        0.0009765625,
        0.0001220703125,
        0.001953125,
        0.0009765625,
        0.001953125,
        6.103515625e-05,
        0.0001220703125,
        6.103515625e-05,
        0.0001220703125,
        6.103515625e-05,
        0.001953125,
        6.103515625e-05,
        0.0009765625,
        0.001953125
      ],
      "exp2": [
        -10,
        -14,
        -14,
        -10,
        -8,
        -9,
        -13,
        -14,
        -12,
        -13,
        -14,
        -13,
        -13,
        -14,
        -9,
        -14,
        -10,
        -13,
        -10,
        -13,
        -9,
        -10,
        -9,
        -14,
        -13,
        -14,
        -13,
        -14,
        -9,
        -14,
        -10,
        -9
      ],
      "shape": [
        32,
        32,
        5
      ]
    },
    "tcn.3.conv2.weight": {
      "type": "weight",
      "bits": 12,
      "per_out_channel": true,
      "scale_pow2": [
        0.000244140625,
        0.0001220703125,
        0.000244140625,
        0.000244140625,
        0.0001220703125,
        0.0001220703125,
        0.0001220703125,
        0.0001220703125,
        0.0009765625,
        0.0001220703125,
        0.001953125,
        6.103515625e-05,
        0.0001220703125,
        0.0001220703125,
        0.001953125,
        6.103515625e-05,
        0.0001220703125,
        0.0009765625,
        0.00048828125,
        0.00048828125,
        0.000244140625,
        0.0001220703125,
        0.0001220703125,
        0.0009765625,
        0.0009765625,
        0.001953125,
        0.0001220703125,
        0.001953125,
        0.00048828125,
        0.0001220703125,
        0.0001220703125,
        0.0001220703125
      ],
      "exp2": [
        -12,
        -13,
        -12,
        -12,
        -13,
        -13,
        -13,
        -13,
        -10,
        -13,
        -9,
        -14,
        -13,
        -13,
        -9,
        -14,
        -13,
        -10,
        -11,
        -11,
        -12,
        -13,
        -13,
        -10,
        -10,
        -9,
        -13,
        -9,
        -11,
        -13,
        -13,
        -13
      ],
      "shape": [
        32,
        32,
        5
      ]
    },
    "tcn.4.conv1.weight": {
      "type": "weight",
      "bits": 12,
      "per_out_channel": true,
      "scale_pow2": [
        0.00048828125,
        6.103515625e-05,
        0.00390625,
        0.0009765625,
        6.103515625e-05,
        6.103515625e-05,
        0.0001220703125,
        0.0009765625,
        0.00390625,
        0.0001220703125,
        0.001953125,
        0.00390625,
        0.0009765625,
        0.0001220703125,
        6.103515625e-05,
        0.001953125,
        0.001953125,
        0.000244140625,
        0.0001220703125,
        0.0009765625,
        0.0001220703125,
        0.0001220703125,
        0.001953125,
        6.103515625e-05,
        0.00048828125,
        0.0001220703125,
        0.001953125,
        6.103515625e-05,
        0.00390625,
        0.001953125,
        6.103515625e-05,
        0.0001220703125
      ],
      "exp2": [
        -11,
        -14,
        -8,
        -10,
        -14,
        -14,
        -13,
        -10,
        -8,
        -13,
        -9,
        -8,
        -10,
        -13,
        -14,
        -9,
        -9,
        -12,
        -13,
        -10,
        -13,
        -13,
        -9,
        -14,
        -11,
        -13,
        -9,
        -14,
        -8,
        -9,
        -14,
        -13
      ],
      "shape": [
        32,
        32,
        5
      ]
    },
    "tcn.4.conv2.weight": {
      "type": "weight",
      "bits": 12,
      "per_out_channel": true,
      "scale_pow2": [
        0.001953125,
        0.001953125,
        0.0009765625,
        0.0001220703125,
        0.0001220703125,
        0.0001220703125,
        0.0001220703125,
        0.0001220703125,
        0.0001220703125,
        0.0001220703125,
        0.001953125,
        0.001953125,
        0.0009765625,
        0.0001220703125,
        0.0009765625,
        0.001953125,
        0.001953125,
        0.0009765625,
        0.0009765625,
        0.0001220703125,
        6.103515625e-05,
        0.001953125,
        0.00048828125,
        0.0009765625,
        0.00048828125,
        0.0009765625,
        0.00390625,
        0.0001220703125,
        6.103515625e-05,
        0.00390625,
        0.0001220703125,
        0.0001220703125
      ],
      "exp2": [
        -9,
        -9,
        -10,
        -13,
        -13,
        -13,
        -13,
        -13,
        -13,
        -13,
        -9,
        -9,
        -10,
        -13,
        -10,
        -9,
        -9,
        -10,
        -10,
        -13,
        -14,
        -9,
        -11,
        -10,
        -11,
        -10,
        -8,
        -13,
        -14,
        -8,
        -13,
        -13
      ],
      "shape": [
        32,
        32,
        5
      ]
    },
    "head.weight": {
      "type": "weight",
      "bits": 12,
      "per_out_channel": true,
      "scale_pow2": [
        6.103515625e-05
      ],
      "exp2": [
        -14
      ],
      "shape": [
        1,
        32
      ]
    },
    "tcn.0.conv1.bias": {
      "type": "bias_int32",
      "bits": 32,
      "exp2": [
        -22,
        -23,
        -21,
        -22,
        -22,
        -22,
        -21,
        -22,
        -22,
        -22,
        -22,
        -23,
        -22,
        -21,
        -22,
        -22,
        -21,
        -23,
        -21,
        -22,
        -23,
        -20,
        -22,
        -21,
        -24,
        -22,
        -22,
        -22,
        -21,
        -23,
        -24,
        -22
      ],
      "shape": [
        32
      ]
    },
    "tcn.0.conv2.bias": {
      "type": "bias_int32",
      "bits": 32,
      "exp2": [
        -20,
        -19,
        -22,
        -19,
        -20,
        -20,
        -23,
        -20,
        -22,
        -19,
        -23,
        -18,
        -18,
        -20,
        -19,
        -23,
        -23,
        -21,
        -22,
        -18,
        -24,
        -23,
        -23,
        -18,
        -18,
        -24,
        -23,
        -19,
        -24,
        -19,
        -23,
        -24
      ],
      "shape": [
        32
      ]
    },
    "tcn.0.downsample.bias": {
      "type": "bias_int32",
      "bits": 32,
      "exp2": [
        -23,
        -23,
        -23,
        -23,
        -22,
        -22,
        -22,
        -23,
        -24,
        -23,
        -23,
        -23,
        -23,
        -23,
        -24,
        -23,
        -24,
        -23,
        -25,
        -23,
        -24,
        -23,
        -22,
        -24,
        -23,
        -24,
        -23,
        -23,
        -22,
        -22,
        -22,
        -25
      ],
      "shape": [
        32
      ]
    },
    "tcn.1.conv1.bias": {
      "type": "bias_int32",
      "bits": 32,
      "exp2": [
        -18,
        -18,
        -23,
        -22,
        -18,
        -18,
        -23,
        -23,
        -22,
        -22,
        -24,
        -18,
        -24,
        -18,
        -24,
        -22,
        -20,
        -23,
        -19,
        -22,
        -22,
        -20,
        -23,
        -19,
        -18,
        -18,
        -24,
        -23,
        -18,
        -23,
        -24,
        -23
      ],
      "shape": [
        32
      ]
    },
    "tcn.1.conv2.bias": {
      "type": "bias_int32",
      "bits": 32,
      "exp2": [
        -23,
        -23,
        -23,
        -23,
        -19,
        -19,
        -23,
        -19,
        -19,
        -23,
        -19,
        -23,
        -23,
        -23,
        -19,
        -23,
        -22,
        -23,
        -24,
        -18,
        -19,
        -19,
        -24,
        -23,
        -19,
        -22,
        -19,
        -23,
        -19,
        -23,
        -20,
        -20
      ],
      "shape": [
        32
      ]
    },
    "tcn.2.conv1.bias": {
      "type": "bias_int32",
      "bits": 32,
      "exp2": [
        -19,
        -19,
        -19,
        -24,
        -19,
        -23,
        -18,
        -24,
        -18,
        -23,
        -19,
        -22,
        -19,
        -18,
        -24,
        -24,
        -24,
        -23,
        -19,
        -18,
        -24,
        -18,
        -23,
        -18,
        -19,
        -23,
        -19,
        -24,
        -23,
        -20,
        -20,
        -24
      ],
      "shape": [
        32
      ]
    },
    "tcn.2.conv2.bias": {
      "type": "bias_int32",
      "bits": 32,
      "exp2": [
        -22,
        -22,
        -21,
        -20,
        -18,
        -17,
        -19,
        -19,
        -18,
        -21,
        -18,
        -22,
        -19,
        -18,
        -17,
        -19,
        -21,
        -18,
        -18,
        -18,
        -18,
        -18,
        -22,
        -18,
        -19,
        -23,
        -23,
        -22,
        -20,
        -22,
        -22,
        -19
      ],
      "shape": [
        32
      ]
    },
    "tcn.3.conv1.bias": {
      "type": "bias_int32",
      "bits": 32,
      "exp2": [
        -19,
        -23,
        -23,
        -19,
        -17,
        -18,
        -22,
        -23,
        -21,
        -22,
        -23,
        -22,
        -22,
        -23,
        -18,
        -23,
        -19,
        -22,
        -19,
        -22,
        -18,
        -19,
        -18,
        -23,
        -22,
        -23,
        -22,
        -23,
        -18,
        -23,
        -19,
        -18
      ],
      "shape": [
        32
      ]
    },
    "tcn.3.conv2.bias": {
      "type": "bias_int32",
      "bits": 32,
      "exp2": [
        -21,
        -22,
        -21,
        -21,
        -22,
        -22,
        -22,
        -22,
        -19,
        -22,
        -18,
        -23,
        -22,
        -22,
        -18,
        -23,
        -22,
        -19,
        -20,
        -20,
        -21,
        -22,
        -22,
        -19,
        -19,
        -18,
        -22,
        -18,
        -20,
        -22,
        -22,
        -22
      ],
      "shape": [
        32
      ]
    },
    "tcn.4.conv1.bias": {
      "type": "bias_int32",
      "bits": 32,
      "exp2": [
        -20,
        -23,
        -17,
        -19,
        -23,
        -23,
        -22,
        -19,
        -17,
        -22,
        -18,
        -17,
        -19,
        -22,
        -23,
        -18,
        -18,
        -21,
        -22,
        -19,
        -22,
        -22,
        -18,
        -23,
        -20,
        -22,
        -18,
        -23,
        -17,
        -18,
        -23,
        -22
      ],
      "shape": [
        32
      ]
    },
    "tcn.4.conv2.bias": {
      "type": "bias_int32",
      "bits": 32,
      "exp2": [
        -18,
        -18,
        -19,
        -22,
        -22,
        -22,
        -22,
        -22,
        -22,
        -22,
        -18,
        -18,
        -19,
        -22,
        -19,
        -18,
        -18,
        -19,
        -19,
        -22,
        -23,
        -18,
        -20,
        -19,
        -20,
        -19,
        -17,
        -22,
        -23,
        -17,
        -22,
        -22
      ],
      "shape": [
        32
      ]
    },
    "head.bias": {
      "type": "bias_int32",
      "bits": 32,
      "exp2": [
        -23
      ],
      "shape": [
        1
      ]
    }
  },
  "layer_bitwidth_report": [
    {
      "module": "tcn.0.conv1",
      "kind": "Conv1d",
      "in_ch": 7,
      "out_ch": 32,
      "k": 5,
      "dilation": 1,
      "terms_per_out": 35,
      "worstcase_accum_bits": 34
    },
    {
      "module": "tcn.0.conv2",
      "kind": "Conv1d",
      "in_ch": 32,
      "out_ch": 32,
      "k": 5,
      "dilation": 1,
      "terms_per_out": 160,
      "worstcase_accum_bits": 36
    },
    {
      "module": "tcn.0.downsample",
      "kind": "Conv1d",
      "in_ch": 7,
      "out_ch": 32,
      "k": 1,
      "dilation": 1,
      "terms_per_out": 7,
      "worstcase_accum_bits": 31
    },
    {
      "module": "tcn.1.conv1",
      "kind": "Conv1d",
      "in_ch": 32,
      "out_ch": 32,
      "k": 5,
      "dilation": 2,
      "terms_per_out": 160,
      "worstcase_accum_bits": 36
    },
    {
      "module": "tcn.1.conv2",
      "kind": "Conv1d",
      "in_ch": 32,
      "out_ch": 32,
      "k": 5,
      "dilation": 2,
      "terms_per_out": 160,
      "worstcase_accum_bits": 36
    },
    {
      "module": "tcn.2.conv1",
      "kind": "Conv1d",
      "in_ch": 32,
      "out_ch": 32,
      "k": 5,
      "dilation": 4,
      "terms_per_out": 160,
      "worstcase_accum_bits": 36
    },
    {
      "module": "tcn.2.conv2",
      "kind": "Conv1d",
      "in_ch": 32,
      "out_ch": 32,
      "k": 5,
      "dilation": 4,
      "terms_per_out": 160,
      "worstcase_accum_bits": 36
    },
    {
      "module": "tcn.3.conv1",
      "kind": "Conv1d",
      "in_ch": 32,
      "out_ch": 32,
      "k": 5,
      "dilation": 8,
      "terms_per_out": 160,
      "worstcase_accum_bits": 36
    },
    {
      "module": "tcn.3.conv2",
      "kind": "Conv1d",
      "in_ch": 32,
      "out_ch": 32,
      "k": 5,
      "dilation": 8,
      "terms_per_out": 160,
      "worstcase_accum_bits": 36
    },
    {
      "module": "tcn.4.conv1",
      "kind": "Conv1d",
      "in_ch": 32,
      "out_ch": 32,
      "k": 5,
      "dilation": 16,
      "terms_per_out": 160,
      "worstcase_accum_bits": 36
    },
    {
      "module": "tcn.4.conv2",
      "kind": "Conv1d",
      "in_ch": 32,
      "out_ch": 32,
      "k": 5,
      "dilation": 16,
      "terms_per_out": 160,
      "worstcase_accum_bits": 36
    },
    {
      "module": "head",
      "kind": "Linear",
      "in_features": 32,
      "out_features": 1,
      "terms_per_out": 32,
      "worstcase_accum_bits": 33
    }
  ],
  "eval_quant_effect": {
    "mse_float_vs_gt": 0.00036874457117684286,
    "mse_quant_vs_gt": 0.0003723426817294831,
    "mse_quant_vs_float": 2.9398872618908913e-07,
    "ratio_qgt_over_fgt": 1.0097577315949544,
    "branch_error": [
      {
        "block": 0,
        "mean_abs_branch_diff_float": 0.4668555499811191,
        "mean_abs_branch_diff_quant": 0.46682602528017014,
        "delta_quant_minus_float": -2.952470094896853e-05,
        "ratio_quant_over_float": 0.9999367583807236
      },
      {
        "block": 1,
        "mean_abs_branch_diff_float": 0.18653560746315634,
        "mean_abs_branch_diff_quant": 0.18648639332968742,
        "delta_quant_minus_float": -4.921413346892223e-05,
        "ratio_quant_over_float": 0.999736167618943
      },
      {
        "block": 2,
        "mean_abs_branch_diff_float": 0.25833086611237377,
        "mean_abs_branch_diff_quant": 0.25844144832808524,
        "delta_quant_minus_float": 0.00011058221571147442,
        "ratio_quant_over_float": 1.0004280642780927
      },
      {
        "block": 3,
        "mean_abs_branch_diff_float": 0.35072445825790055,
        "mean_abs_branch_diff_quant": 0.3508368826005608,
        "delta_quant_minus_float": 0.00011242434266023338,
        "ratio_quant_over_float": 1.0003205489095874
      },
      {
        "block": 4,
        "mean_abs_branch_diff_float": 0.4134406384691829,
        "mean_abs_branch_diff_quant": 0.41364496829919517,
        "delta_quant_minus_float": 0.00020432983001228422,
        "ratio_quant_over_float": 1.000494218059378
      }
    ],
    "num_batches": 1024
  },
  "notes": {
    "bias_rule": "bias uses S_b = S_x * S_w, and exported as int32. In integer MAC: acc = sum(x_q*w_q) + b_q.",
    "mse_domain": "MSE is computed in normalized domain (same as training target normalization if y_min/y_max exist in ckpt).",
    "branch_error": "For each block, we report mean(|y2 - res|) before add, comparing float vs quant(fake-quant).",
    "fake_quant": "Quant eval uses weight QDQ + activation QDQ + bias QDQ (derived from Sx*Sw). It's close to integer behavior and good for collapse-risk checking."
  }
}